# MATRICE IN INDICE 0
-5.225883898274473749e-01 1.549516717291746226e-01 2.109814203411357683e-02 -1.670269190854584362e+00 -4.761871811670299048e-01 1.186699240548858780e+00 -2.348515798565075918e-01 -1.244948282487235769e+00 -1.008427200570330418e-01 6.514693269115151564e-01 -6.422159670891854910e-01 1.194901155256767211e+00 3.663102509826343112e-01 3.846681314601541057e-01 1.430789082627893727e+00 -1.368172667105470031e-01 2.099164066195994494e+00 1.348270990308537254e+00 -1.621305084294523136e+00 3.752723417515292925e-01 1.006057959745079833e+00 -1.140680922958638099e+00 7.146284920298652255e-01 -2.895440634177521427e-02 -2.588180329886564102e-01 1.574571814640291167e+00 -2.280509989527241266e-01 1.663848866571455032e+00 1.216279981680459921e+00 2.738044080858183515e-01 -7.264504520249178698e-01 2.602689232621960280e-01 1.080542493033673779e+00 3.799662697999330319e-01 -9.987829676826374958e-02 2.242252810968409893e+00 8.637418993804546474e-01 3.737252548482514203e-01 3.987755738818640067e-02 1.910319510182519442e+00 7.622531425280076878e-01 7.422975867836660857e-01 -1.077207927112210917e-01 -5.952830104415106349e-02 -5.135302757772524096e-01 1.719335650503194257e+00 3.969678352666647925e-01 -2.296993349115858951e-01 9.920187900617279952e-01 7.481257097052955718e-01 4.171176527846395810e-01 5.557764431403147132e-01 -1.412511193583884550e+00 3.058738066089362051e-01 3.201573607665501031e-01 -2.375111940306228187e-01 1.110780206479769383e+00 -6.828038932176142550e-01 1.417036733013656180e+00 -6.168004109634100951e-01 -4.924163808260923481e-01 -4.726627153762205658e-01 -4.372645943258323675e-01 7.757319191734887154e-01 1.150741407019825635e+00 -7.015705655131506679e-01 -5.909668969994854443e-02 5.367714529309359772e-01 3.697282379111220263e-01 -8.842515695646792073e-01 5.655829828171577978e-01 4.125475636366339738e-01 4.162591316183764101e-02 -8.829776741753879721e-01 -5.267648407604017535e-01 -2.626299857106936253e-01 7.439509889244391161e-01 2.886112671013743025e-01 8.565201268000435242e-01 -1.025821103313459964e-01 5.926215143915954942e-01 -9.316478689556021431e-01 7.053262878244549450e-01 1.270942995636277884e+00 1.174655901811092695e+00 2.365213027825487035e+00 -1.756038993302248274e-01 -4.507109467063912245e-01 -7.276201531163132286e-01 -1.482508450269344413e+00 9.790922394162401843e-02 2.919383747160308129e+00 2.848403370320204964e-01 -8.920286761729366853e-01 -4.223918258068080078e-01 -1.620121200336732958e-01 -1.390180414676948306e+00 -1.680876602580572587e+00 -4.495068074361334709e-01 -1.906449100883718384e-01 -2.949719656925065436e+00 5.806840800796274626e-01 1.291973480895296289e+00 3.575500966973051420e-01 -1.120223681069288102e-01 1.980286456445714993e+00 1.391790245898340661e+00 1.575451170345747443e+00 -3.976167854325857731e-01 -3.062744294602067763e-01 -6.606130912753309659e-01 1.097293675306144412e+00 1.988302974140113422e-01 -1.833703577793917294e-01 -3.093060749044070912e-01 1.192640702818030252e-01 -1.593942385320724187e+00 1.381502535878268746e-02 -9.382623090157615753e-01 7.962847803070739472e-01 -2.342416241326532145e+00 -1.063357576378111791e+00 -1.353796337469529432e+00 -1.159253951729503518e+00 7.301719396402512885e-01 -5.230386295730401480e-01 -6.912298298428203314e-01 -1.221160152387806841e+00 -4.104492909033005676e-01 -7.642407899892704748e-01 8.134070664324050126e-01 -1.313347112787244531e-01 -2.190457475280874755e-01 -5.641515885006171960e-01 1.139609364696879901e+00 3.412424827437057662e+00 6.672385269533045449e-01 -1.295547461243429233e+00 1.143644129194962833e+00 -1.915907241848826770e+00 1.355698683024790130e+00 -1.068274795884736506e+00 -4.299223861746268582e-01 -1.125626416181968015e+00 1.239670587396728640e+00 -4.795242386585081840e-01 2.342633049574690055e-02 5.261382589786884889e-01 -1.718524846700103970e+00 1.488176493650342769e+00 -1.295649736927007245e+00 -4.201085876540142094e-02 -1.528749689868645900e+00 1.023233149564125366e+00 1.048356002843135570e+00 1.405515137902303355e-02 -3.974378780032281622e-01 4.031372226427197836e-01 -2.794806941837649217e-01 -6.621418747124856452e-01 1.213702907058514135e+00 1.237650186286912479e+00 1.567887170149030007e+00 -6.674472260907987620e-01 4.681014931353229547e-01 -7.878122660645264785e-01 -5.419705719697434088e-01 -6.034207256378528728e-01 9.224648875440065454e-02 2.483185096094047695e-01 2.406228883150796083e+00 -2.604652818499190170e-01 -1.663940135624598415e+00 -1.198072617834555542e+00 -1.760646971597832788e+00 6.790354064558141722e-01 -1.582264934880701190e+00 -2.149639408287840503e+00 -1.120627944222771566e+00 -1.506952323152897621e+00 -3.694418497000900303e-01 -2.773521651431977819e+00 2.228306377224581469e-01 -3.942434545298840187e-01 -2.009830476967715995e+00 3.231053108067689639e-01 2.006452707459488449e-01 2.950394931654969355e-01 -4.304331655118564526e-01 1.000057592577948462e+00 -4.588031760537830128e-01 9.118826834064472919e-01 2.544713342787010002e-01 8.855304190001156428e-02 1.144365729043988145e+00 7.563898307510534824e-01 -7.593028941978191559e-01 -1.307906069629178214e+00 -1.371394613466045964e-01 -3.564012331167311309e+00 -2.410386347124746198e+00 -1.566487950016538067e+00 -3.197700981420774191e+00 -2.516847021647478311e+00 -3.416444938268035081e-01 -3.237761415795142872e-01 1.624525296952799014e-01 -9.623097433136101886e-01 4.220944218717975760e-01 -6.134362241747886024e-01 -1.668647789073695320e-01 -1.140621994060191602e+00 5.222001582355112470e-01 3.551196902067182415e-01 -1.076414618354730290e+00 -5.887815510512464101e-01 -2.899576296926894559e-01 8.182759829484418379e-01 1.837275476023619014e-01 1.989099607016448168e+00 1.506220458689170760e+00 -5.071970561863173854e-01 1.942457205338598281e-01 1.710989535607583267e-01 8.489263154720639859e-01 5.448991107927161348e-01 -2.537136975227577973e-01 -1.928064339054593512e+00 1.104968228365701133e-01 -7.616976677315908661e-01 -1.159186628777266526e+00 6.696489150270285018e-01 6.086430761750005747e-01 -1.061894900578537859e+00 -2.059317547051507713e+00 -9.409377031102010847e-01 -1.639608234815980392e+00 -7.947376816625668638e-01 -2.932776773284599514e+00 -9.305575662690981353e-01 -4.486702910909458504e-03 -6.997319513621623466e-02 -2.540721813427755382e-01 -6.972378822653249597e-02 -8.788608013549806808e-01 -2.124792735618430684e-01 -1.336447600070005848e+00 2.497809819311783031e+00 1.516730780353497066e+00 1.125885628952117301e+00 5.742455988452028759e-01 -1.018168991284407410e+00 -9.649690298464057570e-01 5.141618750350701594e-01 -2.648809449433591201e-01 -7.636254112213962386e-02 -2.724150580542740396e+00 -5.412475051692275940e-01 -2.600431928190967759e-02 3.143012017927515056e-01 -1.772247786719233442e+00 -2.122889817382823008e+00 4.674035485914258548e-01 1.995601433122652590e+00 1.241743290070013384e+00 2.666433443151853488e+00 4.282062576846156210e-01 -2.288292755340340268e+00 -2.346655575662154547e+00 -7.361345175863246437e-01 1.325822463675115082e-01 -7.415093375539425491e-01 3.554050775912145355e-01 1.426578505663632888e-02 -7.894946789454229119e-01 2.241563874257627376e+00 1.129201639006162772e+00 1.540082305787625394e+00 3.535697721726419607e-01 1.836717493439291304e-01 -1.515069879033509537e+00 -4.708997665780833008e-01 -7.900825307201357894e-01 -6.723029075833967250e-01 5.737332099341001523e-01 -1.190365820137828830e-02 1.694402607205757194e+00 4.138621760264239668e+00 3.947789859563718196e+00 4.829579255107245395e+00 5.245292112336627177e+00 4.713205838939942716e+00 3.855566318304123996e+00 4.007913837190780981e+00 3.079953178912112399e+00 3.591874378875400779e-03 -1.666326773333541178e+00 -4.641645498519133550e-01 -7.121813123798206302e-01 -2.525085422364459209e-01 9.230344090817789171e-01 -2.100110167816585660e-01 -1.060058511699192990e-01 1.509792229888431869e+00 9.725325133689802781e-01 -3.290749506575788574e-01 -4.135583505139658889e-01 -6.974058303410153314e-01 -2.458745505161088196e-01 -8.328946758258527483e-01 -6.392223144937458912e-01 3.745085039354589251e-01 3.855151186608543612e-01 3.882953661894198216e+00 5.561084027368501381e+00 3.882651069044384506e+00 6.206647118315977707e+00 7.259323368809901922e+00 4.353753966492049265e+00 2.301541165270762246e+00 2.656168209275716618e-01 5.821742805955849587e-01 2.521966717770169009e+00 8.836291612719085475e-02 8.812590477834794100e-01 -8.344337966987956934e-01 -6.793454961015651383e-01 -5.837824973491108349e-02 -2.589004446698528028e+00 1.622174308136610010e+00 1.130117857807871440e+00 6.351680863001279986e-01 5.277566867584073673e-01 8.921322577408256072e-01 8.021637479627935496e-01 -6.217356098946131837e-01 1.372573087702830374e+00 1.398556965550145914e-01 -6.907351060696435008e-01 1.163591561045047351e+00 1.767400744471913365e-01 4.794196405410948714e+00 7.210621096974912270e+00 5.242369313878286086e+00 3.689732149615438939e+00 2.145712884046918401e+00 1.167667596090261606e+00 -6.626519228960010555e-01 9.127121968298377297e-01 1.562267884062931600e+00 4.584927077466754430e-01 7.396111665996557560e-01 -1.185666194301957660e-01 8.394295126124163842e-01 2.590056561040835481e-01 -7.908633521740092709e-01 2.266673558326532112e-01 2.402530236472567804e+00 7.630393111902353809e-01 7.834200654256830987e-01 1.856432968079250734e-01 -5.388544300676834792e-02 -8.578929269614348208e-01 5.203647048208904780e-01 -5.168027716638754487e-01 -3.138309328822344590e-01 1.152415454259032357e+00 -1.049212933277254622e+00 -2.646560763460795940e+00 1.663192514401265587e+00 1.423818673831775072e+00 2.804884551084644961e+00 1.260600041853696007e+00 -2.337908934863109633e-01 -9.219358073623381555e-01 2.297842085134900458e-01 -1.998738628333805445e-01 7.116189345286473289e-01 5.038031485239437002e-01 3.592816991527194026e-01 1.101996195100366949e+00 6.222168682559557906e-01 -2.792395356874663448e-01 -7.269840158065142555e-02 1.466507567605431772e+00 -1.132010010785958753e+00 9.009073935025837532e-01 -9.480321161900259197e-01 5.974430748069645691e-01 -1.771224401240533375e+00 -2.128341745134293639e+00 1.790533691769089220e-01 -1.856159383365951765e-02 -6.284788309004979423e-01 -1.016424641103273352e+00 5.408943863149784370e-01 -1.063235154484887701e+00 1.542780510213737299e+00 3.829633381149015747e-01 -1.034367746111259700e+00 4.007393611464228900e-01 4.673542452612904907e-01 -9.831125798445744524e-01 -2.220997134064493506e-01 4.716821999181582403e-01 7.122496402442896057e-01 -4.279502074497692488e-01 7.803487557442518874e-01 -4.387691990409087750e-01 6.039758101085681563e-01 -3.391182058145703615e-01 -1.296856612332659253e+00 1.266315681178630248e+00 -1.057728286028267517e+00 1.210885453387385624e+00 -1.512786245409589725e+00 -5.331037161517918621e-01 -7.377488011329852435e-01 2.421218290151306851e-01 -1.325240096736250539e+00 -4.175003672164560031e-01 -4.988685677106892702e-01 -4.053889253295506756e-01 1.095980750654006020e+00 -1.270288302242791323e+00 -5.083661963308331311e-01 -4.521393352369637020e-01 -2.870762530999600992e-01 -6.278757188015551272e-01 -1.986975389154473637e-01 1.080788514383228260e-01 5.333412053327569735e-01 2.465774819246474292e-01 5.126182990088070657e-01 1.719932835612424160e+00 -8.986109575187217757e-01 1.302630483580799581e+00 -7.941886630907940559e-02 1.332563531012802560e+00 3.906376502585719168e-02 6.961907424803192024e-01 -3.696222523525705683e-01 -9.582933192921756493e-01 2.113517371060917305e-01 -1.349047774106662434e+00 -1.823869733385729885e+00 6.826733988369149131e-01 -3.427112341988884925e-01 7.747211086308466443e-01 -3.896351676754767346e-01 -2.513937224324117037e-01 -6.778884750437056891e-03 -2.284622989455594499e+00 -3.215895971762420258e-01 -8.850514221805708681e-01 -6.918313023028788145e-01 3.149163762327815697e-01 -9.271140576067478101e-01 -8.238243155277410468e-01 1.062631457276021596e+00 -9.361485054421060381e-01 6.320112121162118068e-01 -6.170144496823228020e-02 7.992396525913698646e-01 -3.174616722722187201e-02 -1.461828821551147461e+00 -3.115657523640557036e-01 -1.460384703811692386e+00 -3.201651091804742777e-02 8.384913800594588906e-01 -4.697766607646399750e-01 -6.297282526945137127e-01 9.037821578202446249e-01 -9.012548384008064462e-01 -2.682324151827466391e-02 -6.343814364730544497e-01 7.370788123221060362e-01 -4.213205133195286334e-01 9.040103421464893430e-01 -4.518208222065978052e-01 -2.692852988770781053e+00 -3.014410269417441834e-01 -6.062570189329568038e-01 2.967753254900908910e-01 -5.440820362625573559e-01 8.492099421492123046e-01 1.958585568361660645e+00 3.834332085881810293e-01 -4.254040067790428870e-01 2.009912235876684328e+00 -7.025277134795346878e-01 -1.197825405665116749e+00 7.558333810704281897e-01 7.219248088146303088e-02 -7.311532508412112996e-01 1.526917556592466862e+00 1.332684621883850840e+00 -1.877320563891695659e+00 -7.412140840198480074e-01 -4.797599603703133209e-01 -1.309217011791730112e+00 -3.736457142221343730e+00 2.218687319735260510e-01 7.256227097043842222e-02 -3.219481584408356412e+00 1.223954690839797133e+00 -1.368528361587013631e+00 -1.834341634340115990e+00 -1.834968332909304722e+00 6.823761502455022443e-01 -1.246502077571162825e+00 -1.711630947533160640e-01 1.373477429546792861e+00 -4.471807149717695329e-01 -5.423686023819963564e-01 9.297384589603675531e-01 4.291847771689829560e-01 -1.835112284984485309e-01 1.221670200595708522e+00 -8.401831663746579526e-01 8.063548620169129766e-01 -1.225040948566592514e+00 -1.594587879941388453e-01 -1.255814141087396418e+00 9.817553652381547646e-01 -6.175693354559863568e-01 -1.841901315682607398e+00 6.595108715534864219e-01 1.387298813487013005e+00 -1.541499719175097205e+00 -2.506833851213104425e-01 5.498400120770524646e-01 1.522365903451818880e+00 -4.282012416665162968e-01 -1.855796491012792759e-01 -4.371309977509319489e-01 -1.795143393678784394e+00 -5.626650012806532208e-01 -2.449287765075528478e-01 -1.412075663312759133e+00 1.417923380488741170e-01 4.070079044763474374e-01 -2.548695371500534490e-01 1.648022141841717136e+00 -3.331530564522356963e-01 -9.119383205735179798e-01 1.183721832939852447e+00 -2.979250801606249111e-01 -1.401161014059294496e+00 -1.048546414607919752e+00 -3.171205640598221409e-01 -1.788366453299011116e+00 -1.670841406583832178e+00 1.641532538293283827e-01 -1.510303046997585052e-01 -1.622331464306461912e+00 -1.518812595698910695e+00 -2.620375529251810942e+00 5.002138810193306195e-01 -3.482739473801554908e-01 1.703463215980173695e+00 4.717572452263270044e-01 -8.928900207243465337e-01 -5.069330007279517769e-01 -1.341950165314160115e+00 -7.919647960981635038e-01 -5.900857738352404125e-01 -1.430204680776328008e+00 -2.725876247145676556e-01 -1.530061688530799380e-01 2.427379436577395966e-01 -1.063061111556157012e+00 3.743939334127643348e-01 6.637062589561874004e-01 -5.197338020636481648e-01 -6.676506498868385320e-01 5.176043633183101678e-01 -5.471353193715959851e-01 2.167363088044557684e-01 -1.771536547529135586e+00 -1.942499772874422756e-02 -1.461377964813054264e+00 4.146497876079136002e-01 1.168481111652371757e-01 -2.161156017794680029e+00 -5.613256034553135709e-01 5.531403400180675556e-01 -2.806297235967242232e-01 6.342742257933001726e-01 1.569715874169853365e+00 -2.584435414077613791e-01 -2.733040615305815102e-01 -2.797129087105775014e+00 -1.088839819137753961e+00 1.308194568951137837e+00 1.971694371392658907e+00 1.551285084093163291e-01 1.374325413150751185e+00 2.303392799446273287e-01 9.043781646653118456e-01 -2.538403369723742919e-01 -3.624768520331963506e-01 6.508638804088794361e-01 5.405139482071562584e-01 5.896327607129667747e-01 -6.116689539218685967e-01 6.800307258679986200e-01 -8.951814121245185718e-02 9.854102313507869804e-01 7.179913207296087507e-02 9.950476407392068179e-01 -5.833172122440735130e-01 -2.482758443640588064e-01 -5.916330503963457277e-01 3.158642436616504456e-01 -1.850896942611526819e-01 -5.038497040543683525e-01 -6.086285625786378439e-01 2.143662583483852413e-01 -3.537401628250591568e-01 -3.430121160380499301e-01 -2.057148155317485738e+00 5.428824788554598157e-01 -1.459988233774886401e+00 -3.468832037776604094e-01 7.013196297473260898e-01 -1.449724956986292668e+00 7.701755407070849380e-01 -7.092645264161948626e-01 7.044702632846409907e-02 -7.280211123758848490e-01 -4.288880411035776441e-01 -8.085855488121411749e-01 3.132101802432724069e-01 -2.964405559352297215e-01 -1.520683802801220175e+00 -1.541094724858011800e+00 7.643980783736086249e-01 -3.641604934056123510e-01 -8.656618819140581289e-01 4.327925441284314889e-01 -1.272317810690044126e+00 -1.086640665392698546e+00 1.282980501227647174e+00 2.212061617721757800e-01 -1.465068164828311481e-01 -1.024601929509652898e+00 -4.094038416583169471e-01 -7.614915847561198881e-01 1.010348573408230699e-01 -1.924554118357842680e-01 -1.136047443855669581e+00 6.851394081647449452e-01 3.324845939267701000e-01 -1.117742548068145769e-01 -3.210653289681256184e-01 8.262722992196096516e-01 6.896179623230570543e-01 1.002637569429075115e-01 -4.642085399239428978e-02 1.304270694229015204e+00 -2.182653139850531387e-01 9.904324403622892792e-01 -9.818826024817506326e-02 1.165451486516363815e-02 -1.973911952514186829e+00 -1.833090205543783879e+00 1.492141475990115040e+00 9.895796849450959609e-01 -1.417163109578584990e-01 -8.694888501039652051e-02 -7.168206761608917343e-01 8.661865865553011190e-01 4.479577315302874507e-01 -9.726510053745531792e-01 -6.871297170780006347e-01 -1.645070334253469602e+00 -6.469562919760312170e-01 -8.445948402556050505e-01 -1.377842334105428002e-01 -3.915388383307676912e-01 5.988073741364171587e-01 1.672165246250395809e-01 3.459821467585867949e-01 7.827472606874598116e-01 -2.075764765189674677e+00 7.232497976558676100e-01 -2.859224563603405267e-01 8.228462079368730198e-01 6.642826420665125520e-01 -7.930585397672074155e-01 3.131624677167454962e+00 -1.487938752779903062e+00 1.020224981784682294e-01 -1.348296974760490929e+00 3.904072814212142251e-01 -8.196640727714512575e-01 7.642848788798238813e-01 -1.187461395037394674e+00 -3.284834001883196186e-01 1.974078001620119260e-01 -5.000491076523104761e-01 -4.920921535299863092e-01 7.233563973075088915e-01 -2.917437914691107803e-01 2.411135256420618711e-01 -1.693436459117923620e+00 -4.807875669385178741e-01 -1.052921002431326469e+00 -2.182522227086062472e+00 7.901642593405097115e-01 -1.656739763415828293e+00 -5.333775746942063245e-01 -1.757834301384278763e+00 -3.246460539401155865e-01 -1.508546347807794286e+00 1.238356498395524641e+00 -9.347134489894687315e-02 -1.026662905334790210e+00 1.171763304956717766e+00 1.615042900292814165e+00 -1.190851590409519156e+00 -2.151079445130021570e-02 6.582905222398257594e-01 -1.145767296963553727e+00 -3.227401732347093821e-01 -5.279301437644061679e-01 8.657301689257678179e-01 -1.019191507864970037e+00 -1.000050613401981980e+00 2.106989776909029832e-01 1.514944472251062157e-01 9.829596925831550758e-01 4.392501587427333765e-01 7.451059000946297362e-01 9.949849638165926269e-01 -7.574684894590987261e-01 3.687631884880250843e-01 -1.717377448314268751e+00 4.522364156375077715e-01 -1.685584481719817784e+00 -4.986536834388687334e-01 4.966616862445559222e-01 1.044378327542898072e-03 1.290401395030179144e+00 6.542532010689201538e-01 -3.692820476780336869e-01 2.617017245095132894e-01 -3.219647703432339247e-02 -8.227658443177783276e-01 7.876028148480579416e-01 2.679102957558402442e-01 1.772427500263738243e-01 -1.041482256263492001e+00 -6.472797606670800397e-01 -1.781568990364839955e+00 -1.384304376947870507e-01 1.809532761522076205e+00 -1.392278306927852982e-01 5.226408059578727672e-01 2.540614744537958436e-01 8.023263772523157034e-01 4.646384629738283811e-01 2.602693597342037868e-01 -3.131383006117116063e-01 2.867313191655466165e-01 -1.060717309208154768e+00 -3.892533356406575051e-01 -1.582340215450138254e+00 1.623407876943491202e-01 3.046761328110746958e-01 -1.346567444731552765e+00 1.169211630975041105e+00 1.688504704587366623e-01 -1.281649693206477481e-01 -3.573863925574819467e-01 -3.839351374329156297e-01 1.132201912006755906e+00 1.715406749607346071e-01 -1.497159388285654424e+00 5.682640903350387740e-01 -2.220331091020437242e+00 7.155019182504152031e-01 2.907648500733310271e-01
9.369965215557736204e-01 -6.136025410027399207e-01 2.814437957234249832e-01 -1.014609430117590971e+00 9.108150272092378763e-02 -3.225360321319667101e+00 -9.054761042228490764e-01 1.035610910980089283e+00 4.505402883176841677e-01 -8.713100644813870366e-02 6.522837747130535435e-01 -3.285485606814958492e-01 1.813388555126147050e+00 -9.475368121457050652e-02 -1.612602325983064411e+00 8.322713610259947770e-02 1.003319502040687317e+00 1.174585965370933849e+00 8.955632258864767437e-01 1.600609076687184773e+00 -2.352676291925916707e-01 1.827786067633426992e+00 8.817101686941973826e-01 -4.116329781765749596e-01 8.172859682260890102e-01 -1.347936226806354665e-01 1.348068566221551912e-01 1.190384272486060047e+00 -7.878858528234233827e-01 9.553344683033428986e-01 -1.967350397586599131e+00 -1.756879808156224465e+00 9.298331815334875960e-01 2.787442964071861207e-01 4.984868285255638493e-03 -5.421026733780449636e-01 -1.953885199442574883e-01 4.514617815887221330e-01 3.199843681102902959e-01 -4.916919676610979617e-01 -3.618436189296457273e-01 -1.130859355001879507e+00 1.421208360911594970e-01 -9.608576592963232743e-01 7.484320461444717854e-01 1.320197354488651831e+00 -1.644083006220354193e+00 -9.563025434843666073e-01 -3.246878716167653334e+00 8.467896726872407853e-02 -6.354646108818653438e-01 8.473488600072252019e-01 9.131731743347054620e-01 3.965527306873456448e-01 2.264149372600349430e+00 -2.198476839482445266e-01 1.048569371699759195e-01 1.575917372335626343e+00 8.987502288591840693e-02 2.998441958294822296e+00 5.069386239024764595e-01 4.960539143772593751e-01 1.282816132265009124e+00 1.439105083976861099e+00 2.098289292626673297e-01 -2.010331122867279052e-01 -8.076414265595346365e-01 -5.135113145151259939e-01 7.566044936311436819e-01 -9.725762597273471810e-01 -1.100494495944246864e+00 -2.291365775926158255e-01 -1.112478682985629103e-01 4.863689135294250315e-02 -6.816750204413790648e-01 2.013740249216931844e+00 3.694565569868514809e-01 1.430856470373464751e+00 -1.927049394581615394e+00 -9.665131536392501665e-01 9.212223384937360260e-01 -1.389683140683749762e+00 8.995964189591684201e-01 -8.639233300872881660e-01 -1.340679673010388040e+00 -1.206153387962643153e+00 -6.302668745271761130e-01 -1.258910262406192748e+00 6.943066084996484255e-01 9.393590244064110584e-01 -1.281036231433192008e+00 -1.073717952949381216e+00 8.290437115950660685e-02 -1.811425328628516684e+00 -9.792109693530306469e-01 6.407069230406352567e-01 1.014789994690301622e+00 1.059031826904379026e+00 6.556069909810082752e-01 2.276727026573613644e-01 7.413718368917945334e-01 1.169685243741660274e+00 1.322107201876518756e+00 1.067136351827380425e+00 7.575752054431519888e-02 4.367682687092969696e-01 3.394789229711661083e-01 1.650675406540874190e+00 2.613066465281159712e-01 -7.996596100825512643e-01 -5.059504052801188090e-01 1.191547593961067353e+00 -2.970500328512119537e-01 -6.148241199529668605e-02 -2.686532099237776139e-01 -9.057209310353862008e-01 1.995247243434690176e+00 5.374785381598207179e-01 9.019633936499397153e-01 2.007583342052449149e-01 -2.080379247546071841e+00 1.430610118963041355e+00 6.577051589721985003e-01 -7.599107088030279122e-01 -1.114686601509644381e+00 8.840412159723467500e-01 -3.511112498069081100e-01 1.382682856048239817e+00 -3.244496082150900573e-01 -8.441571126819384929e-01 -9.238242971721564167e-01 7.401042898298019201e-01 -6.337687223176394768e-01 -9.274437222245466295e-01 -4.577632458864219211e-01 -1.497711908239127976e-01 1.623182301226232971e+00 2.694570514542442119e+00 -2.871680206214710096e-01 1.028871564369256975e+00 -1.611016882447329629e-02 -1.338891310250624578e+00 -3.249127172066935687e-01 -2.534463165917462679e-01 -1.404032144788631142e-01 -1.157048307370964979e+00 -1.102661036954624585e+00 -2.742946750516453980e-01 -1.322634827741824060e+00 2.665029786468592898e-01 2.733643358607653062e-01 -1.095538056284633521e+00 7.242037720091780706e-01 2.861263356562672722e-01 1.988013744385091597e+00 -3.713326246036725009e-01 3.704623709028987966e-01 -2.644220090622866337e-01 -1.367062821195872635e+00 9.124073610618940178e-01 -3.049087584204042134e-01 -6.882642489237091876e-01 4.995142137332687637e-01 1.223370997169433094e+00 2.815650133796842258e+00 2.440705197928540737e-01 1.673088606670418921e+00 1.160503430979876960e+00 1.090293836450343168e+00 -4.305953732947807588e-01 -5.672899979901104839e-01 1.286333881981180371e-01 7.880930047413926554e-01 -7.814275194538304603e-02 -1.489820929605658817e+00 -1.778979011471361060e+00 -1.107351744983058328e+00 -7.206182738201976079e-01 6.910225385217452221e-01 8.974568167368026650e-01 -9.407829964723528615e-01 -5.097441016085769716e-01 -8.490356915147155847e-01 -7.692023081958135888e-01 -9.689809699548084243e-01 1.026221211553259405e+00 -1.371326206470840248e+00 9.365161284253075147e-01 -2.994062604774209713e-01 -2.550954364843863731e-01 3.059001934878572637e+00 -2.860412420376930442e-01 1.215505407005322169e+00 -7.474091062300720623e-01 -3.610535540954579736e-01 1.466860704098561508e+00 7.438117361312297504e-01 1.384198194393286174e+00 -1.973965162609971458e+00 -4.260483511445414262e-01 1.095947206903196136e+00 -1.449675461796583464e+00 -1.857705138564806457e+00 7.420885862676607214e-01 -1.289661730529899630e+00 1.359696740690456318e+00 1.259204324028590616e+00 1.366693545846724867e+00 1.098709573217298452e+00 -1.245047381205768300e-01 -5.603108234544562638e-01 -3.601743125416137503e-01 1.877606889278818636e-01 4.351941592721587093e-01 3.868911912194563651e-01 5.891338170689707221e-01 1.282542120458885826e+00 -2.552068166749821634e-02 1.913162861742721266e-01 1.037870462134935945e+00 1.509546492752389613e+00 1.397518998364159160e+00 7.937903986194678740e-01 1.595562277635666604e+00 -8.477937794823795503e-01 -6.904844046415836711e-01 2.137570851511052250e-01 -1.784704534342231030e-01 6.139978734122399917e-01 -1.000890309021748914e+00 1.567124327150423713e-01 -1.332288517361335467e+00 -9.151226231644229436e-01 2.572090840635155029e-01 -7.416563545111651834e-01 3.333714068996681545e-01 1.260673936806836704e+00 5.690598479104662655e-01 1.093605959365196778e+00 1.001816462674416597e+00 1.555456178189350835e-01 1.566060418579136915e+00 1.176497365784620275e+00 2.177373676078328213e+00 8.213644896808611762e-01 6.437634727485868069e-01 1.076332350157673368e+00 3.493660577687652147e+00 1.520741127464337872e+00 1.227737301964968664e+00 1.780848784951642449e-01 5.609236347258366173e-01 -9.644942972944776649e-01 9.952829861916269449e-02 2.481129176535985525e-01 -1.099144643563414320e-01 -5.027537194831604994e-01 -1.063117429677630899e+00 -4.347854904929683295e-01 -6.136402857363325580e-01 1.425337384714519429e+00 1.405162350681433692e-01 8.226509737202718220e-02 1.864312585640253150e+00 -6.850566395389822150e-01 -2.630398937138685445e-01 -1.497363225531015196e+00 -1.319695979422166987e+00 -6.423561306625913403e-01 -1.299132471648644316e+00 1.676698676715485670e+00 -4.834066329894391445e-01 1.347768118374313984e+00 -3.272872759509269924e-01 5.475220323855196636e-01 9.411726119998915785e-02 -1.340503051599646334e+00 6.333727258255886783e-01 -6.669908199165744955e-01 4.484530548120928550e-01 -1.690277744189161879e+00 1.934869630485732406e-01 -1.932544909947279954e-01 -7.907544680312246221e-01 5.750799234650166847e-01 -1.827443333527645208e+00 9.392935530520295506e-01 3.199587311007069390e-01 -9.430284775232521399e-01 3.974143830800556665e-01 8.012547466365850246e-01 1.043806889875708466e+00 1.294412470042852981e+00 5.977135732163043613e-01 -2.471008344808993229e+00 -1.995022552802675042e+00 -3.085327494408220517e+00 -3.317086110257114306e+00 -2.025422504340677055e+00 -2.667669341452168386e+00 -1.718397000072628078e+00 -2.618075914240579061e-01 -5.982950695677756725e-01 -1.943693909979424261e-01 -1.021105031460007639e+00 1.306291738026883031e+00 -3.067480629078011001e-01 -2.045688898888063101e-01 -1.467133943642005889e+00 3.847360978505525719e-01 -2.141495158944108024e+00 -9.756374556434498357e-01 -1.545184393132019718e+00 -1.875170134940828737e+00 4.091817808831778591e-01 -8.028219854757138174e-01 -6.122091933235014327e-01 2.097307778246070564e-01 -7.536819414169645404e-01 -9.229030627755856475e-01 -1.652829935969641006e+00 -1.098328019704506664e+00 -8.242518838693003724e-01 -1.185367108041032846e+00 -1.944247949458723923e+00 -3.604884336736273731e+00 -3.307559253051819415e+00 -3.693824966865344006e+00 -3.573614418034462670e+00 -1.381772715785682282e+00 -1.291689974912512806e+00 2.410693258721544607e-01 3.879630365406100956e-01 -6.844036760342365744e-01 9.005827824695065154e-01 3.442607780310175114e-01 -4.750108386370165969e-01 1.773294111249570926e-01 -2.158023145872780407e-02 9.601604247875231701e-01 -5.854896349455692706e-01 1.576214826692964588e-01 -7.215458682760295117e-01 -2.300406158345272012e-01 1.379360439598797949e+00 -3.437586125016408034e-01 -6.561341124948746328e-01 -1.089831169337130090e+00 -1.288752819931329396e+00 7.831149874226526197e-01 -5.927926708357220686e-01 -5.825470570425634875e-01 -1.623817036297337868e+00 -1.904018550487217354e+00 -3.489013198947510830e+00 -3.563250344316725382e+00 -4.729701895568774184e+00 -1.813592205896595644e+00 -6.131690601558309472e-01 -8.657540686670098795e-01 -7.442696246459172826e-01 4.975045050392270518e-01 3.842161258798151846e-01 -4.525134605636725316e-01 -8.035979644494957164e-01 -2.077004568473443391e-01 4.195198787916155636e-01 -4.275673530042012893e-01 -1.822722090519743654e+00 -7.566220811871763319e-01 3.049622037414236320e-01 -1.069681482664412986e+00 2.686466020263608145e-01 3.828407890333381490e-03 -2.902734152890240615e-01 1.107546518740669894e+00 -6.739566559864702822e-02 1.250954584465277797e-01 -1.811712660313095566e-02 1.045526845583018005e+00 -3.859476347933000207e-01 -1.839987328249876597e-01 5.737432582407927528e-01 5.590550723241181907e-02 -6.869151369353219128e-01 -1.208052271895669882e+00 -3.912186189622081089e-01 -2.880820030012255728e+00 -9.888400796225953471e-01 2.831121929572614215e-01 -6.157284172224415375e-01 1.753635791408563738e-01 -1.289055111087234959e-02 -6.107007360428901716e-02 -5.550096348064325058e-01 2.781732571043712410e-01 1.379122288134039531e-01 1.391547896250904692e+00 1.964169321457459816e+00 -3.392611442373396624e-01 2.526339139196765338e+00 9.160855394265052798e-01 -1.179585599328138168e-02 -5.645953670770309518e-01 -5.531022930042722718e-01 3.493948148400692622e-02 -5.810892644152059194e-01 6.930783628223453618e-01 -1.292833508334283232e+00 -1.671071639493949101e+00 1.456426379595247289e-01 -2.418539576128774904e+00 -8.776192362380160761e-01 -2.272751038620523245e-01 3.723404578954320199e-01 -6.881592243336615011e-02 1.036004266194527346e-01 1.022670662573726741e+00 8.435441764331941261e-01 4.597678336642979091e-01 -1.309418932906972532e+00 3.448857538495674890e-01 6.351014695841400437e-02 -1.304143691125531523e+00 1.808269401773988649e+00 -1.426977559279433594e+00 1.197536619345394016e-01 1.221039101794884063e+00 1.130385865076843244e+00 8.242663476662130673e-02 -2.490227432510265237e-01 -1.503797237797354969e+00 9.630516310315172523e-01 1.192670804269065910e+00 -1.019172385825098726e+00 6.056862010661057116e-01 -8.127973307272359782e-02 -2.827527671139062004e+00 -1.355897738845343037e+00 2.785248899946337064e-01 1.125289764201899745e+00 -9.052779213733911368e-01 -6.341859375086350559e-01 1.331781932603241625e+00 -8.329924577065117575e-01 4.161925321714036174e-01 -7.678515091052146024e-01 -1.498230134113768042e+00 9.995033619784415846e-01 9.799132776646063414e-01 8.583045200439073374e-01 1.280017441299566405e+00 -1.266056819589668203e+00 2.265610616727279092e-01 3.643742973117137240e-01 -7.399783899025216272e-01 -1.800535661559290013e+00 1.271146555007657275e+00 -2.163144955317716445e+00 1.082397083859744757e+00 -8.291708595114103408e-01 -2.287731375628308250e-01 -1.231837703729486089e+00 -1.195871544229708983e+00 -7.043199763424393689e-01 -2.353849895087419597e+00 -6.083234881830270613e-01 1.283938584937124316e+00 8.806991063294963284e-01 2.648690849203714781e-01 1.100365030405221933e+00 2.099794803578570734e-01 -5.818354188553713779e-01 8.063575066722773466e-01 1.104270818742409732e+00 -9.610083499227872750e-01 -1.946454134092170107e-01 -1.381397028222715262e+00 -7.807197830035582653e-01 7.812419604419854613e-01 2.079809678260019778e-01 1.032176717645046482e+00 8.382483089911546559e-02 2.146988815051055835e-02 -1.107325561683109694e+00 1.425228333073303988e+00 -1.137053382997063711e+00 -9.018541447872080452e-01 -1.229669945121337538e+00 -2.176084193403171607e+00 3.357211486501643360e-02 -5.386615654997537472e-01 -1.336599292369286873e+00 3.521650846004932833e-01 2.333932739813794122e+00 1.401529564295184160e+00 -2.842626666464149188e-01 -1.493391703200690757e-01 -4.558873358139853282e-01 -9.254493167815469601e-02 2.403540321975537797e+00 4.692992861239959207e-02 -2.146699712098068258e-01 1.213004674906716263e+00 -1.289493406660354280e+00 -1.414231744601412988e+00 -9.184670229805393937e-01 -5.206345088849269054e-01 -7.272008436230416040e-01 1.492783889052035073e+00 -3.028709859654230563e-01 -3.144208394754349212e-01 1.988890465089311610e-01 -8.784200003339935892e-01 -2.235957015376778045e+00 -2.566596450259689188e+00 2.355462302419434606e-01 -1.055970087060491114e+00 -9.863997376809426898e-01 3.505356590843194398e-01 -6.465315300441457635e-01 6.931107257933273313e-01 -5.843313396582929808e-01 -7.225316892014373993e-01 7.552981052799223605e-01 -1.305341701301933055e-01 -9.508796413349721588e-01 -1.171166870514254832e+00 6.117385963528139126e-01 1.499802265394771350e+00 1.503791910442846547e+00 2.005037432187087854e-01 -1.695031770913595359e-01 -3.921769336294629316e-01 -2.131047504321656572e+00 -5.991735095857637639e-01 1.909446094869473143e+00 4.350291281220954875e-01 2.831081892828676838e-01 -2.484296369762277745e-01 -6.126136147549470223e-01 -1.309339725267098853e+00 4.147426678040420644e-01 2.484049909796812172e-01 -1.355617934594915086e+00 -8.158417160425320835e-01 1.383179529315401890e+00 2.034297732425110805e+00 4.325057645762805381e-01 -3.984442541404726312e-01 5.250121862289983676e-01 8.539381168087327723e-01 -9.402308356244798437e-01 1.536989376790407702e+00 1.191219147997872208e+00 -1.538660438147940068e+00 -4.199269780938107155e-02 2.549830510347487755e-01 8.678633821086555455e-01 5.005362200402352357e-01 1.782471355668904689e+00 -1.648013597859525337e-01 -5.564357735564855467e-01 -3.256358694217288408e-01 -8.546129888983871048e-01 1.173477210346101751e+00 -4.408861832017474947e-01 -1.432594244011322404e+00 4.338216620693130521e-01 -7.017096786579820611e-01 2.087507048736283899e+00 2.671358745486852038e-01 -2.230440089487717714e-01 9.401629479902345876e-01 2.060853074969640542e+00 5.431212103815371561e-01 1.670224971719831419e+00 1.835118073503778424e+00 -5.076722061320023682e-01 9.369982572738354554e-01 -3.886524602462191336e-01 9.736357635006057110e-02 1.283417515977209877e+00 1.000578180098335990e+00 8.283571705435484045e-01 -4.541531186806703757e-01 -2.056786049599774735e+00 -3.350999526472238643e-01 1.521906415273778235e+00 9.125617869580632258e-01 2.790098944106917944e-01 -3.905481987196436910e-01 2.637826610654525061e-01 3.095874029328466587e-02 -1.433097201074651439e+00 1.425533458713514001e+00 1.419107496071014385e+00 1.199241221707129990e+00 -1.168417234560864326e+00 1.358663205858144707e+00 9.590598473779007316e-01 2.091833542169459381e+00 3.088188377163368914e-01 8.558280708212220311e-01 -8.895936595582233375e-01 5.086975250382320679e-01 9.832379946948943683e-01 -2.968758966248273623e+00 4.680515168773729390e-02 7.165955524036967672e-01 -2.479495310939761887e-01 3.680146085361876152e-01 1.084827665663607110e+00 -1.801727520231368951e+00 4.192188652062253107e-01 -8.681002531375259235e-01 3.250192049790364690e-01 -1.120859965812758263e+00 8.749098863391269187e-01 1.524097290128359816e+00 -4.258722735407921012e-01 2.216583242793349395e+00 5.271175074808432948e-01 8.452241997451236388e-01 8.375953034401900643e-01 -6.818864110845803683e-01 -2.674029867519651105e-01 1.361361334237495724e+00 7.899718904416788146e-01 -7.090483369890968612e-01 -9.079720838147184447e-02 1.523032038872429439e+00 -8.051427565148876475e-01 -8.703790658503708366e-01 1.457104613131704918e+00 -1.808784255286623455e-01 9.040371320178587355e-01 -7.335378105923129333e-02 2.190937304600798774e-01 1.038323867865088790e+00 -3.610865732907944103e-01 -1.610228025780793715e+00 1.389723917860452351e+00 -7.523738531534344132e-01 3.047864108024285756e-01 5.732702671540577111e-01 3.651728738991404932e-01 5.821528849922312787e-01 -5.337041250970409045e-01 3.073269366122696050e-02 1.468997988233847196e-01 -1.875843604714401980e-01 -9.494262188868957120e-01 -8.070308339076136261e-02 2.578999121827934005e-01 1.364433753757016143e+00 -3.592700741141758858e-01 4.185266336788788788e-01 -1.445293034595053761e-01 -5.180060542681663716e-01 1.201212684765265992e+00 3.293724512002580429e-01 -1.657654670256658358e+00 1.249467087227726196e-02 8.447702815336584070e-01 -3.959474947740075357e-01 5.349145958648759969e-01 4.821042829445383315e-01 4.588396414219115815e-01 -1.100507304012754650e+00 -1.890545669951683827e+00 1.635100776666675859e-01 9.403480222238715935e-01 -8.069619035841836263e-01 5.793109877802964380e-01 -1.202020694082544194e+00 -1.501721452053716099e+00 5.959823907778364349e-01 5.372881613877709128e-01 -1.325231712328556632e+00 -2.424737905350959066e-01 6.973213686793899857e-02 6.626462658370788072e-02 -3.127348149745819983e-01 5.688863046670108448e-01 1.257787111933710733e+00 1.490606263395332753e+00 -4.688889952047653464e-01 8.870672082940469494e-01 2.195950591723934975e-01 1.282928349120772582e+00 2.536836265366758103e-01 2.147061178286430394e+00 1.770981799128487300e+00 5.491492670961516803e-02 -1.445538675715416777e-01 1.804509566529578279e+00 6.413609357256340182e-01 -3.361809886589566254e-01 2.950271348780862724e+00 8.925922935233461253e-01 9.373223496552933742e-01 1.249822978913453397e+00 -1.247730318602812360e+00 5.798488130315968547e-01 -2.025150753696914663e+00 -1.229827213780939482e-01 -6.648902105193711665e-02 1.059804341050062604e+00 -5.436238666955953702e-01 -7.515356771925085777e-01 1.920927498332326289e-01 -3.255525673872941561e-01 -9.475591348195492314e-01 4.220237953521948637e-01 2.717585210721684130e-01 1.335643320148582225e+00 -1.120293848106105328e+00 1.965272640493920253e+00 6.348976430737218735e-02 -1.699121312806423645e-01 -2.792825444541397473e-01 7.549544252935215249e-01 1.264030831043176040e+00 -4.789613512163403697e-01 8.068575259684298562e-01 1.320324806445967170e+00 -3.854705283721110431e-01 -1.177161912671646604e+00 8.417484018090287332e-03 1.031533122680312387e+00 7.278481975601081011e-01 -9.630674323845112017e-02 -3.461876538380703194e-01 -8.709982810190888269e-01 -1.636936690249123361e+00 -6.177161640462017766e-01 5.714092933376558880e-01 1.028468048990827111e+00 -1.027963529022060785e+00 1.184055692976861973e+00 -1.122146469629399457e+00 1.106988295342769879e+00 -5.576129539187146822e-01 5.488721129292956080e-01 6.254545941057734204e-01 7.857637061074240759e-01 4.039853938171204528e-01 -4.329179268213545484e-01 -9.059289247843366200e-02 -5.684117085823355703e-02 3.166679510449754154e-01 9.718358473595487546e-01 1.822642288400620147e+00 1.432447275902985151e+00 1.166048467541762168e+00 -1.354487843340866082e-01 3.131101299907765312e-01 -1.425319889354136338e+00 8.767128823805053761e-01 -9.668588757990407290e-01 1.102235142248987332e+00 -2.235756359562822704e-01 -5.312532884705241099e-01 -3.299439787254996315e-01 5.571092859193205182e-01 -8.608381204489166105e-01 -9.441355963115555250e-01 -1.480745087416867722e+00 -4.671276390706312065e-01 -5.499859149136449021e-01 -1.416294226717637494e+00 -2.951696713230170244e-01 -1.749842556000659854e+00 4.494914711066471669e-01 4.267857217057566266e-01 -1.737345783309043101e+00 -2.340909139414880380e-01 6.614349836514182845e-01 5.220256700042799070e-01 -2.671515431597646928e-01 1.240372872531302129e+00 3.949737953525854217e-01 5.282995731368828052e-01
-1.015205153546468564e+00 -5.832160104904137166e-01 -3.609677331633320829e-01 1.943891935031790252e+00 4.855560156643691228e-01 2.865020508207857919e+00 3.608661231202593411e-01 7.159834565922200411e-02 -8.040254466072745965e-01 3.401541992977519246e-01 -3.833737121985500984e-01 5.471222549130527746e-01 3.650712732399044591e-01 6.698234148063504367e-01 4.794202047780926068e-01 -1.490473888823421245e+00 3.507722085792158717e-01 -6.616629180407790356e-01 -6.059654864821543141e-01 5.032969341853333889e-01 -1.223094761296728006e-02 -1.051775873720087517e+00 -2.407816635249959258e+00 1.683065041891144142e+00 -8.524534211444132481e-01 -9.896485202144358340e-01 8.749741243090161102e-01 -1.829367415978832012e+00 2.194688962422618184e-02 4.070161610405000352e-01 1.760753017563888356e+00 1.009891938325690131e+00 -6.189942518477806743e-01 3.015878271604530148e-01 8.228143803988389182e-01 3.438698932002340225e+00 -1.635278009188378512e+00 6.103126336779637340e-01 -1.851186011956644117e+00 -8.393949004620336884e-01 -1.944428339339101530e+00 -2.199542817203191891e+00 -2.387038879522248802e+00 8.581950256811575750e-01 9.602966014182041654e-01 -8.682795344240171742e-01 8.757972056062991451e-01 4.438694314991074030e-01 -1.387697320252915478e+00 1.033007300837777587e+00 9.827123887825222059e-01 -4.727589406757270463e-01 1.154368541354506700e-01 -1.321126561992415072e+00 1.508479099263329903e+00 -3.446895928451618185e-01 -8.366242712564414541e-01 3.239386680526840645e-01 -1.109003270034866651e+00 -6.790183631433237554e-01 -1.375254317434655205e+00 -5.934453801737449297e-01 8.756219740226761639e-01 -1.166264209483445669e+00 1.218796693872793296e-01 4.661761247922166507e-01 -2.653072210582206880e-01 1.169350293389275347e-01 -9.370642219626663660e-01 1.905416633945513083e-01 -1.746694500700457509e+00 1.482545929637916204e+00 1.681293844169631235e+00 1.116943498165299919e+00 -5.799452397210587140e-01 9.411840651958294224e-01 -1.704999231175554852e+00 1.617546694829681719e+00 -5.589403893085292951e-01 -4.991861777688132162e-02 -9.492765593596922402e-01 -1.298449168118481323e+00 1.200426187543187639e+00 1.073970480011627732e-01 7.689187375132031654e-01 -1.202154604437128516e+00 7.218979318299914016e-01 5.387279144193691804e-01 1.671517631933474302e-01 -3.665023682719806830e-01 4.179064110509957963e-01 1.617609574358612079e+00 1.088702779972856582e+00 5.605732132889185149e-01 2.221791224445590185e+00 -1.046128147506206529e+00 -1.477198920084657585e+00 -1.310970562009546037e-01 1.411401549909838959e-01 1.469797323692823676e+00 1.705866384460049900e+00 1.942547287113757237e-01 2.025955009694593301e+00 3.758356019179824314e-01 2.806823921765702945e+00 4.110268257606889963e-01 7.804727303764273927e-01 1.245198200695844665e-01 -9.405308410572221778e-02 -1.777651877360012067e+00 3.202684234362931925e-01 -2.891470537371063076e-01 6.689546921027024196e-01 -4.175570818205187607e-01 -1.528044967504266660e+00 -3.614864094247124959e-01 -3.183047534633726694e-01 -1.499825417557187235e+00 -4.802771316583316907e-01 1.753260224245644094e+00 -8.438661097298078007e-01 -2.598534669133364394e-01 -4.026918981460545499e-01 -7.477626227864178077e-01 4.264314060703122689e-01 -2.383522308700011250e-01 1.651577188231819093e+00 -2.556652097423964265e-01 -1.015401474781673530e+00 1.076725231104534553e+00 1.224028925838787307e+00 6.135840857607779419e-01 1.275305794907358736e+00 4.143439853624931724e-01 -1.411905927632483460e+00 -7.184756348501891710e-01 -7.867275979884722492e-01 -1.175547901608965606e+00 -1.249282011761322364e+00 7.231012926084106063e-01 -8.315589382416540554e-01 -1.834469404546572868e-01 -7.688358005259623429e-01 6.067254162060112255e-02 -1.533295326012463610e-03 1.725498176237217018e+00 1.283321292412082260e+00 3.409566944496777441e-01 -1.765475874077026885e+00 -1.018347065520637695e+00 -6.287566176000420892e-01 -3.508196279603983947e-01 1.086703619742921401e+00 -3.623132092785592562e-01 6.779996350217264434e-01 -6.557364780325146691e-01 1.165678567387878450e+00 2.704737540081045832e-01 -7.460261277366586445e-03 -1.634109641962830262e+00 1.617192627773069269e+00 -1.750615860716597583e+00 -1.127008586864924888e+00 -1.442195222261685394e+00 1.695945437107430898e-01 9.419227911638193562e-02 2.203518631448064258e-01 -6.955891936123828057e-01 -1.205292980859931973e+00 -4.108070595760427435e-01 -5.968891256021480185e-01 -1.254734581441253161e+00 6.802250791402673080e-01 -1.102719114104548093e-01 -1.009320004939060045e+00 1.858546276705387301e+00 -1.609615901273100669e-01 3.731255380133322030e-01 1.140465168926572265e-01 3.732247747161098750e-01 -6.966172690715203286e-01 7.619089414810845673e-01 -1.263886019493593249e+00 -4.964728737801922809e-01 -1.444433308149652095e+00 -5.354156567474283035e-01 7.047199443691015697e-01 4.975337980630351736e-02 -8.372502003395824177e-01 -5.993513937378943668e-01 1.397878452793544168e+00 -3.858908674868791744e-01 -1.167693943178830018e+00 8.376560609993689566e-01 -3.070383585392345571e-01 -8.960205818774537034e-01 -1.299061578472577194e+00 1.495038566773093380e-01 -6.031101390100920279e-01 -7.807994382845627745e-01 2.062519275085874515e+00 1.578413068219268522e+00 1.805174360869995720e+00 1.377101425810645763e+00 -6.539235603135361563e-01 5.499266335024688424e-01 -4.857413725498821999e-01 -2.422469379792164743e-03 8.657222463162164150e-01 2.508916362205268480e-01 1.727371527744576474e+00 1.374194888673106130e+00 4.860943268302937437e-01 -5.001611641101494365e-01 7.727447892018379783e-01 1.969068673041121653e-01 -6.244957085583123513e-02 -1.744184934034241283e-02 9.035331940735130685e-01 -4.210817567875511924e-02 -2.346547062680476303e-01 8.509675348282469409e-01 -3.758317314974534140e-01 1.709938655647961214e+00 -1.490607141977228878e+00 -1.435101690589756451e+00 -1.715317363261082140e-01 1.280436763578238324e+00 -1.199103599333746883e+00 -1.718062552066594861e-01 7.090631453499948167e-01 -1.002332167084266645e+00 -1.044471964887538906e+00 9.433431432720569276e-01 -7.121216725551285931e-01 -2.396987889230731972e-01 -2.999009260868927274e-01 -1.825508875544418652e+00 -7.614660282576741768e-01 -5.136996617971838486e-01 4.341525032220592828e-01 -1.684692863645869787e+00 -1.531067853431960391e+00 -1.164878853699385652e-01 6.778560934255893899e-01 -7.562953361190546397e-01 5.301367423066588591e-01 5.394826861595439782e-01 -1.776995211107708972e+00 -1.794954257119262930e+00 -2.220780029812613188e-01 3.024678199232994080e-01 6.837181764961748343e-01 1.334184851584051756e+00 -3.792750089567383572e-03 -1.599839014785130020e+00 -6.257952989384836240e-01 -2.111747058584539649e-01 1.472972031333196485e-01 2.975080499599481509e+00 -9.231230960407361963e-02 2.142168347238355142e-01 2.055957133612424492e+00 -3.012386433199981117e-01 -8.133243011141004786e-01 -7.383959096161500923e-01 -8.918963523781372471e-01 1.275456683102278888e+00 1.152306495063391889e+00 -7.078577773008311036e-01 -1.455604889864007712e+00 -1.064978906077153065e-01 -5.302166986740359800e-01 4.467783579500090863e-01 -1.358253114842849496e-01 -8.094428181287088853e-01 1.368144757706635462e+00 -1.964422334706327489e-01 6.656377515301364900e-01 5.105398330629503656e-01 -1.037992232787646074e+00 -2.098026369582022266e+00 2.094717720479788992e-01 -1.055394400748665751e+00 3.073033144145749240e-01 1.843263178660086571e-02 -5.762476543431744869e-01 2.554662486426542145e-01 -4.686092662600339076e-01 -9.855124290008102639e-01 2.645836821550292539e-01 -1.475305646574418317e+00 -1.004504402002879271e+00 -4.318020793381515537e-02 -3.059901363550599385e+00 2.780770077240291016e-01 1.273688669985000299e+00 7.886329998818466525e-01 2.174233953391952745e-01 -1.360375451986935436e-01 -4.939479428975586117e-01 -6.866975929780492205e-01 -1.240880026970479832e+00 -1.233574751410587922e+00 3.015206586076423778e-01 -7.464022987584115754e-01 1.409487055757953911e-01 1.030491751273582945e+00 1.157452104675913862e+00 8.451931119309449292e-01 3.487259940036240846e-01 -3.642194951382369816e-01 6.286351681131340241e-01 -1.900527423319233258e-02 1.069230530885065145e+00 -7.717463853779436000e-01 6.277381106229612540e-01 -1.188810151473948862e+00 6.614259794867229925e-01 2.590292017308760020e+00 5.357296884746628463e-01 -4.305727693575225890e-02 -7.182127565927556301e-01 5.389106703164440182e-01 6.718053324974208040e-01 2.086033796291489661e+00 1.485947969568646165e+00 -1.289248101120419321e+00 4.857046901167831332e-01 -7.329755061482260414e-01 -1.035555870299196130e-01 2.271527142411348954e-01 9.085293250133310572e-01 -2.582433564860834307e-01 -6.901339153925690750e-01 2.987806462385052875e+00 -1.357137308404072540e+00 -1.105096540791371318e+00 1.232231042659541753e-01 -5.217272564944184232e-01 -5.041868735412254887e-01 -4.032863589274283123e-01 1.164833281794427799e+00 9.063749530524958797e-02 -1.452573243770426681e-01 -2.574978566649298584e-01 2.107546284149167448e+00 7.992225485258136475e-01 1.610300702751534141e+00 -3.574655355230447751e-01 9.815999960816348402e-01 4.927864570359384300e-01 1.251313916460942810e+00 9.452904758136558838e-01 8.605408842941836278e-01 -6.889433339011240554e-01 3.036906902075398595e-01 -1.419204508676377596e+00 -4.928105330201512091e-01 -5.846687858431234286e-01 -1.098588159267155806e+00 -2.267515888957537307e+00 -1.670507894966088980e+00 -6.040122130843667003e-01 6.893730171083964908e-01 -1.307188619396375318e+00 1.558275314425645319e-01 2.764025240326030142e-01 -2.522723267828081983e-01 9.139007951054850274e-06 1.467788769152696293e+00 6.680797853596468494e-01 1.742877304655645609e+00 2.214778110597504235e-01 1.058369219625318935e+00 -1.298854448294548825e-01 -2.072462041650257047e-01 -1.217516826123321794e+00 1.802099208429928545e+00 4.619596626910425496e-01 6.655788554982753347e-01 3.057802894426475238e+00 2.269721033970813817e+00 6.833603572318599495e-01 4.845491710518823880e-01 2.248080629081642190e+00 4.817301703920476297e-02 2.516931131039303882e-01 -2.858491823094396200e-01 2.779773034143186994e-01 5.337365636343641695e-01 2.194201275736893386e+00 2.535292426731289850e-01 5.278108509795446102e-01 -1.909873344679575702e-01 1.077958111504936922e-01 2.206910845125416465e+00 -9.150966838070874465e-02 1.040697848335481179e+00 -1.886287677166766652e-01 6.961915772802399482e-01 -6.396031177376966248e-01 -1.623248622883484815e+00 -1.168390325858834622e+00 4.995960818815074478e-01 -1.129050225406497132e+00 2.967129177474450152e+00 2.252299953959767453e+00 6.141332005025329499e-01 -7.015825030678610186e-02 2.243241385739610738e+00 5.589611553815934109e-01 -1.100225349356021898e+00 -5.304753529953776248e-01 -9.713978098191569099e-01 -1.465829557793687232e-01 -1.265716571939440316e+00 -5.699126350542453867e-01 -7.088070800609184152e-01 -4.436575812824780085e-01 -2.070153445969988848e+00 -3.132820422027036700e-01 -1.107288140006545518e+00 3.598589047671709173e-01 7.298545313548034930e-01 -8.760872668221352244e-01 -6.381127560719359604e-01 -1.028645796951316825e-02 -1.413883535453159368e+00 3.320551100723721782e-02 -1.553478227924574462e+00 -7.111010668194646112e-01 -1.978312403097132632e+00 5.391899804616333107e-03 -2.698974502280438448e-01 1.728510542983325016e-01 1.211162029989350797e-01 1.964340897061453317e+00 1.795013909725098777e+00 1.590797498673380606e+00 5.345013489971573994e-01 1.423660625357944909e+00 -7.904119340268772609e-01 3.238714399758024776e-01 -1.389555479591717546e+00 3.810298821000346337e-01 3.858668881070220769e-01 -1.046129748229647882e+00 1.581309493355937512e+00 1.267426860843065439e+00 -1.019492382583335743e+00 -9.532078410210289565e-01 -3.971303222559120494e-01 -9.334610526281804377e-02 -6.453116516969301664e-01 -6.369294929362251390e-01 -1.130189397493916337e+00 -7.299416315846336545e-01 -1.321083781428772808e+00 -2.195499853194996298e+00 -2.081971310800754399e-02 -1.969490872438932616e-01 -1.855343558364109524e-01 8.087176573798529056e-01 1.798097697530675498e+00 8.583519515378850162e-01 2.047771587795337023e-01 1.261784911264753894e-01 1.641127149317594680e-01 -6.880573803923196730e-01 4.798144779693244710e-01 -4.427181240161245229e-02 -1.630368679280257194e+00 -7.406284574613062333e-01 -4.116951850251110434e-02 -1.736606922648214202e-01 -1.801632722215829707e+00 8.669228393784636152e-03 7.100602684024193145e-01 2.911177745234479475e-01 1.572023417990293215e+00 -2.152979409161548396e+00 -1.649969229721640396e+00 -7.041000654827288541e-01 -9.545820404878843646e-02 -1.467891253898325754e+00 -2.573935233497735897e+00 -1.982572066166913061e+00 -1.155723952901391849e+00 1.730453421313515650e+00 -3.646700109304892301e-01 -3.348721889830726384e-01 -2.516761794877753755e-01 -1.920894969796329843e-01 1.401451239040593766e+00 2.663242904434016900e+00 1.090158939941168414e+00 3.080046004074509236e-01 8.268629973494817653e-01 1.083075721779917788e-01 -1.999381036826242825e-02 2.885760453299437422e-01 -7.246419039638904991e-01 -1.907877964455233055e+00 -7.923844805319528728e-01 -1.111415473686021838e-01 -9.965835656543533538e-01 3.933377760488463437e-01 -2.850861027796595670e-01 -6.054699852573486307e-01 -1.805874101057551417e+00 -8.574911730409256680e-03 1.409052317224913642e-01 -9.325819332270590678e-01 -1.819300793765447066e+00 -1.407783014900637619e+00 -4.446855687863920936e-01 1.549388545211125345e+00 1.294419465099325706e+00 -2.243410671735466544e-01 -2.438016636051413000e-01 -1.749837426407771235e-01 1.323065626525767868e+00 2.617863482062261049e+00 5.131878499882354117e-01 3.037635371416596008e-01 -3.087041272679071358e-01 -1.195157882492089652e+00 -9.763962267489326163e-02 1.315261702719362713e+00 -2.029557375002243869e-01 8.491413701624178634e-01 -1.333589134254174746e-01 -6.053962088686531268e-02 -4.738373958505120997e-01 7.853344646431410503e-01 1.334155922109491632e+00 7.108219853281839695e-01 1.827128462384998819e+00 -6.935070426804798016e-01 -2.615255349798466966e+00 -5.765581912579629265e-01 -3.064452242504864365e+00 -8.073237459138681293e-01 7.570599936888967596e-01 1.998042380339816182e+00 1.628805178882490656e+00 -1.482889454708664623e+00 6.461068343835757455e-01 7.051741108927366275e-01 1.565727763788004601e-01 1.937968962200098177e+00 1.366308572978998548e+00 1.606545646437275598e+00 -1.144954825432375589e+00 1.185220993570965442e+00 -1.124286506034350097e+00 -1.287795500064491838e+00 4.779437323239134616e-01 6.565180086665765025e-01 4.293256866024731111e-01 2.487475607952961132e-01 1.673712742819971622e+00 1.998810289982838606e+00 1.458627137619123160e-01 -4.148670238887399719e-01 1.537326175967440145e+00 -1.127497562748588145e+00 -3.448937249129706006e-01 -1.551488148031797243e+00 -4.229722652401313177e+00 -7.005615219838754459e-01 1.569276182274406573e+00 6.527732709202354044e-01 -9.386203182969428127e-01 1.355784463673330498e+00 7.341344014868762535e-01 -6.819986036497792670e-01 -2.382525974646141353e-01 -6.830682781529254233e-02 -6.902845854063832665e-02 -8.680182034611795272e-01 -5.468314544925222398e-01 -1.117373345990669398e+00 -1.084991781647749454e+00 1.826586798808120249e-01 -7.204367224484508059e-01 1.256659065059699154e+00 1.023304408075410982e-01 -1.372376100421268452e+00 -3.445248910658755270e-01 3.892613417951468202e-01 -2.698721608783467563e-01 4.173725285844119282e-01 -1.681805276655572223e+00 -7.181043588559692381e-01 -8.157030086329867258e-01 -2.555297288719533544e+00 -1.870032551474957394e+00 7.001936547447905335e-02 1.716662958195814159e+00 1.197697019988924749e+00 1.121970342469727600e+00 -3.001140370637634947e-01 1.760119773116241682e+00 9.059402565949548070e-01 9.898209924931408166e-01 -9.353143682580014051e-01 2.394932267006646132e-01 -3.463455850824191384e-01 3.052696645405968412e-01 -1.928908634965102564e+00 -1.528315955125604031e+00 5.405448140900072085e-01 6.197759841649509438e-01 -5.746986796747581838e-01 -3.611863348988984534e-01 -6.960935412240288889e-01 5.235444039000882732e-01 -3.480357713451435187e-01 2.025267249721364848e+00 -3.188156269179363567e-01 -6.475808563604700252e-01 -1.979590304843256154e+00 -2.275002442456468821e-01 -2.257892767405127010e+00 -8.286258127853064481e-01 -1.838479078416518364e+00 -6.721867729048438544e-01 2.676524543799742584e-01 1.814146274546751370e+00 -3.916648403974117704e-02 -3.909260056065736594e-02 -3.613054855685595701e-01 7.586119582987440602e-01 -8.771462751981597972e-01 -2.557474039970812352e-01 4.366112259464587364e-01 -1.469140263492352494e+00 -5.292711803226032297e-01 4.071654963749071071e-02 -1.330783563863659813e+00 -2.099515590204194537e-01 2.840100997144649475e-01 -8.763545636184936205e-01 5.813561035032889235e-01 1.013673873845134299e+00 2.747490504202679262e-01 2.035599783846871791e+00 -9.229907747720068611e-01 3.933828363751787349e-02 2.596255030976873934e-01 -2.212981726682138051e-01 -1.007818257353874980e+00 -1.807625683632993807e+00 -4.747423779989453085e-01 -7.523215564462720252e-03 4.636339802035255864e-01 3.950264004874902424e-02 1.350229748425203047e+00 1.482488721387356545e+00 7.550587754170359212e-01 -7.131530892379956896e-03 -1.154372807384812516e+00 8.723157053296293206e-01 1.018728756014094294e+00 6.193457801310819910e-02 4.875285759736882052e-01 -1.214874708676620063e+00 1.776048094423300083e-01 -2.700188795519794738e+00 1.650230521270418249e-01 1.479168138244054687e+00 1.082026378221982554e+00 6.094773681090940309e-01 6.511412107265416305e-01 1.911518724691483762e+00 2.233859909896880325e+00 1.734223169803479569e+00 1.575221247153072657e+00 9.140548028597321739e-01 -1.359303319941704558e-01 -3.532447169508585727e-01 8.613567663982537592e-01 -2.703956607744770757e+00 -1.749024572286173695e+00 1.689948076919287889e-01 -9.536810859427281573e-01 -2.299348688343875735e-01 8.610692812710315502e-01 -1.460789308104679884e+00 1.434335585986207917e+00 -7.646774864160285068e-01 -7.157111710339663091e-01 -1.627732139044751225e+00 -1.123800205553130871e+00 1.873069923186325980e-01 4.250860748945406997e-01 1.367413521584000868e+00 -9.317313237910470614e-01 -6.143346442362549453e-01 -1.151875152988293127e+00 1.272442678361609680e-01 -7.472041421688514762e-02 -1.652723248179619242e+00 1.360136858833373097e+00 2.571822679034204029e+00 2.133400928966020516e+00 2.374908946399838072e+00 1.442038321850419136e+00 3.767469375006847199e-01 3.139606048930949217e-02 1.528178372714817490e+00 -2.477891655166855334e-01 1.335578401775169066e+00 6.859887689536767752e-01 2.899892576442013037e-01 5.879337728419415932e-01 1.492108655007962359e-01 -8.266811885010726391e-01 2.085273750202897514e+00 1.295203162174537903e+00 9.402813777306531784e-02 -1.666306003411346381e-01 -8.901256084780170275e-01 1.136560879224199905e+00 6.484133255997298617e-01 -1.408651314848374803e+00 3.292443621312490798e-01 1.635932172600708737e-02 4.611291787831278133e-01 3.741348978826750798e-02 1.121994342418729751e+00 2.534398776197355208e+00 1.384334372703831084e+00 1.289670397282710157e+00 -8.105900750480742323e-01 1.062030758181065765e-01 7.247085923467893043e-01 -3.629095523560916248e-01 1.063906933178021763e+00 2.504482784619851410e-01 4.814287306213477224e-01 1.457523766641362351e-01 -7.923898909394072598e-01 1.906860612511002140e-01 3.362524680790900167e+00 5.802965661063222980e-01 2.549432121414779928e+00 -6.480838566743727380e-01 9.072280968445562976e-01 -1.242391585110494745e+00 -9.579892450037972296e-01 9.630503186642179747e-01 1.614641091199230105e-01 5.992902881646041680e-01 4.248897354618217936e-01 -1.936056337108188127e-02 -3.529604616288907759e-01 1.148460837241863930e-01 2.005603659785657467e+00 -1.686105275716182073e-01 -4.939921244359640196e-01 1.400358416605182121e+00 -9.655453242843093919e-01 1.551741389247342173e+00 5.362822897010416368e-01 -6.844060942030920636e-01 7.462657268566293967e-01 -9.788105951885383016e-01 -4.953125336757461805e-01 7.368722118263566490e-01 -2.306139918124466281e-01 7.846989795847519877e-01 -1.845829359541004133e-01 -4.492779893641126732e-01 -5.581911816237333790e-01 6.788452675583073193e-01 9.078375756965137988e-01 6.659647966657438189e-01 3.631469838121101912e-01 -1.120423961789150491e+00 -1.145360178780259863e+00 5.179690314648673771e-02
8.103846311821942816e-01 1.242551483410095359e-01 1.404516933062904815e+00 -7.314691218357727287e-01 -1.452456041636940087e+00 -6.416732542989523891e-01 7.917872848760670879e-01 -1.624707133079218879e+00 3.948333142082618985e-01 -6.156007520583424153e-01 9.074525918139242364e-01 1.161384125302721060e+00 1.061217737992087740e+00 4.695161467399278088e-01 -2.055190672128318075e-02 2.818204960022172578e+00 7.715194915341230253e-01 5.768475523712207620e-01 1.321320568862442091e+00 -1.678035321981144135e+00 1.479470562913328124e-01 -1.009577010014708121e+00 -2.096822174475364009e-01 1.272633014988741595e-01 7.576464714988114801e-01 5.740933322062344996e-02 1.481522819899682819e+00 -8.813945114995014318e-01 1.767624557503153060e+00 -2.082709208194452044e-01 -1.713256770609667412e-01 2.514176296678744538e-01 -8.173875637043530595e-01 -1.844021021557171514e+00 -8.260467481625232145e-01 -1.137433163890025245e+00 -1.030946930393105809e+00 -4.435437708240237420e-01 -8.791857181986317826e-01 7.833887323938480696e-02 7.419001685802366630e-01 8.584827317378347367e-01 -5.579192091386617758e-01 -3.529979485839164488e-02 -6.676861261138342662e-01 -9.627612383327182055e-01 4.501944450956346655e-01 -9.272889473908841884e-01 -7.826967792784068900e-02 -1.907829214046156963e-01 2.491831807076534844e+00 5.050161101321262169e-01 -1.101770452072654699e-01 4.824524366324984270e-01 3.449778948432188908e-01 1.439845661502829263e-02 -3.726368319903394788e-01 3.776221597289204923e-01 9.792691615773421177e-01 -4.138678619117109880e-01 -1.368558609012823446e+00 -2.031960998669903873e+00 -2.219474629297563784e+00 9.897417456155946924e-01 -6.205367438650225553e-01 4.937783114956416641e-01 5.139094768994219020e-01 -1.018446948502790050e+00 -1.176015750762520323e-01 -6.353551285897420797e-01 -2.252999188137325248e+00 -1.701759051695507230e+00 -9.757692987904540427e-01 -2.466503241798605472e-01 -2.984545262069513982e-01 -1.998431410573185296e+00 -1.072548384470268124e+00 1.272846115957766422e+00 -1.230334024930387349e+00 -8.710668776918062406e-01 1.018898673534238464e+00 -4.290494721958859614e-01 1.056490308335096273e+00 1.077188723640968515e+00 -7.525969793215266934e-01 -5.427315140167952023e-01 8.105936262005800641e-01 -4.617534676864581966e-01 2.118753406256386751e-01 -1.317213769057198336e+00 -1.561615042944856313e+00 6.946614125340700996e-01 -1.966050647056411527e-01 -1.358710352262620491e+00 -2.124484665560246732e+00 -3.681189611796893968e-01 -1.944574123214893868e+00 -1.800226749202261001e+00 -1.940354457959413192e+00 -2.373184379003969724e+00 -1.832982805959709305e+00 -2.462804265857494457e-01 1.520204169857617381e-02 -5.502358813959814521e-01 3.976854015978738277e-02 1.079780989877487496e+00 -1.406435386427604683e+00 -6.915695920290102494e-01 2.983366446321872659e-02 1.146014216509902095e+00 -8.294241443304990469e-01 1.051179682785617464e+00 -1.199377466594403696e+00 -8.842165929368858146e-01 5.441387110862070386e-01 -1.049100331384446472e+00 -5.947871479411194207e-01 7.770783348494167964e-01 4.881666716358762925e-01 -4.610356018370599940e-01 8.313307188185564689e-01 -2.811216410996231652e+00 -1.271310273858226925e+00 -1.349134418342058161e+00 -1.857419150337446645e+00 -1.442669735531356724e-02 -2.885144653974988760e+00 -2.788358196226782937e+00 -3.540560644322659378e+00 -6.696853444202633954e-01 -1.386569816358950602e+00 -6.477648186679213493e-01 -3.857756019441344608e-01 -5.774346449817274740e-01 -1.784484239229446600e-01 2.229928503217805780e+00 -1.834217264550107307e-01 7.788672157369245230e-01 5.947234315985296949e-01 6.870440000684656656e-01 1.305186620582879931e+00 -1.083578442605149572e+00 -7.916144448404167644e-01 -1.138846736474580679e+00 -7.131094828000072994e-01 5.123294583058328744e-01 4.516745643298913371e-01 -7.054278560010768251e-01 -9.006510791992647924e-01 -2.879393128832313797e-02 8.331343409483211726e-01 1.285935113517760187e-01 9.534887527181433453e-02 -1.339159561066446125e-01 -1.411518590477411905e+00 2.550904842429666530e+00 -1.225940787002396171e+00 -8.538140983276542029e-01 -1.374348201928637270e+00 -2.087666842949936097e+00 -1.939788895267336555e+00 -1.074327935809878509e+00 2.193951484930000806e+00 5.962611029026636950e-02 -7.015040042393991815e-01 1.148915434038144667e+00 1.212450375545322867e+00 -1.706798931454126089e+00 -1.251721573477165395e+00 8.086159444245177852e-01 -1.149397340923145272e+00 -2.437114450041581171e-01 -1.056064037152188329e+00 -9.094838865742302936e-01 -1.146628639712304887e+00 2.057418234969813575e+00 4.044255237598285979e-01 -1.579510473104427659e-01 -1.039284293674117343e+00 2.975339870681595889e-01 -6.276707751675029145e-01 -1.311224096815815754e+00 4.179929981403983086e-01 -1.060985596735106062e+00 1.610484186576005783e+00 -3.969645448941496180e-01 -4.031498048439934312e-01 -3.318305118716672886e-01 2.819512117753554259e-01 -1.220065490384298623e-01 -1.068854166676793449e+00 -9.110228040199087607e-01 -2.192223825950298632e+00 -5.597842281913746332e-01 -2.011052534607477849e-01 2.015256005790504457e+00 2.995633574670995003e-01 2.186412882137478142e-01 -5.437157877438757447e-01 8.058726451718266626e-01 1.361897338386115708e+00 1.520036887393047875e+00 -3.108959452281833125e-01 2.358300046698427188e-01 -5.382730974920204581e-01 -3.080205174573952265e-01 7.967878332154605392e-01 7.186981736444381097e-01 1.182801202741703639e+00 -5.290830741732985842e-01 -6.200036474541799070e-01 7.197363926509996457e-01 -5.591988035408930191e-01 2.003099737981764161e-01 4.249526044090214394e-01 -9.844748623386080366e-01 1.612419081265495269e+00 -6.135060499008474499e-01 -1.874707938992940859e+00 7.418974039253792840e-01 -7.796161157698187072e-01 4.196259380177550513e-01 5.226097104004222560e-01 -1.477715677925840021e+00 -2.192260610803486442e-01 7.787884025250023656e-01 1.515326462796434126e-01 1.556099832105586611e-01 1.465507062758860002e+00 8.499110606644191268e-01 3.583890991951335092e-01 -5.235175996503420581e-01 -5.466595774029652244e-01 2.016570369145199493e+00 -1.031799160787128855e+00 7.420392476157269268e-01 -1.577411612361432791e+00 6.031077889312085327e-01 -5.593825114275696730e-01 8.597057191926008590e-01 -1.659293257893849349e-01 1.334292620834933718e+00 1.941940472702505249e-01 6.359765614277906876e-02 8.824444156490096614e-01 -1.671024842994219828e+00 1.476917038436851737e+00 -1.097944027231379405e+00 -1.006965560332600818e-01 -8.754836386192740294e-01 -6.286835505356203058e-01 8.318709190031466916e-01 -1.858450359196306689e-01 1.766148684887275166e+00 -8.140801974250017059e-01 2.838221051070583673e-02 2.012616687405851756e+00 2.951015998261791728e-01 6.223194031056080572e-02 -7.355964007534536719e-01 1.470761094666909852e+00 3.613740094998159069e-01 3.181492837959079001e-01 -5.108111136696033006e-01 7.889445599646401908e-01 9.920879398136198679e-01 3.827238313955056981e-01 -3.686798424312061062e-01 -6.161197801923485873e-01 1.530107714389955964e+00 -4.832842617587240208e-01 1.476692331248523393e+00 -1.005852634791730843e-01 -2.110866666640757727e-01 -6.378991332710902684e-01 -1.628848392271252443e+00 -1.628515189736933433e+00 2.652360026609937305e-01 -9.230422657741645109e-02 1.729367404382674112e+00 1.129990754362600214e+00 6.319464032097358297e-01 6.504673569497401164e-01 1.053919871118722096e+00 2.765053955289802912e-01 -1.266792722285519091e+00 1.765406863295881368e-01 -1.405678920779013907e+00 -5.976657395573318210e-01 6.571259255055633686e-01 5.037756888561043533e-01 1.256120127881555693e+00 1.477437317835952779e+00 -5.616611667487915183e-01 -1.455076023425639242e+00 8.904772354593417649e-01 1.557293272192784295e-01 -4.459440591569473478e-01 1.856060156434180264e-01 -6.600600859492083972e-01 -4.896449230639061678e-01 -2.052023746379897151e+00 7.772098517151472263e-01 -1.767034378679458451e+00 -1.546734780133820042e+00 -1.313402825992526557e+00 -2.103319723274141850e+00 1.906718519214531393e-01 8.903534389116728454e-01 9.908602922406229974e-01 -1.960268760769290131e+00 -1.313773643733660901e+00 1.248902944834639372e+00 -6.929069897862231153e-01 1.247508778530082241e+00 1.466112663394194326e+00 3.532201176795241593e-01 1.005343221459323422e+00 1.576014439635424536e+00 2.019577011850629322e+00 8.027078189938098296e-01 -4.339827728144073915e-01 -3.217376354963193297e+00 2.559704497560848502e+00 2.917132259600810684e+00 2.837754832365821933e+00 1.788396299972315084e+00 2.576069392031002936e-01 2.939633439287331562e+00 -1.292875615522121879e-01 -6.330747967876508842e-01 -1.855899324296633512e+00 -2.978740263342261052e+00 1.279391467221053347e+00 -1.602165497338652322e-01 -5.072380336961321845e-01 5.801783547670689295e-02 5.270768787863491234e-01 -1.416285779890827379e-01 1.958597433531188869e+00 -5.284814363933511006e-01 7.437106784817298921e-01 -3.970044400418807906e-01 1.230721353810375396e+00 1.666040590777247310e+00 4.797619012534306004e-01 2.266162662949414153e-01 1.213675596643950083e+00 1.626488810565938969e+00 -2.165193110633750084e+00 -2.659968681270910906e+00 1.968483643789000093e+00 6.909777524220931388e-01 1.916565930856420019e+00 3.132531667995364977e+00 1.441117179522990233e+00 1.343369636323168637e+00 -6.091477156976904395e-01 -1.360666233025867644e+00 5.765363670726016965e-01 -1.553432012837841804e-02 -1.433575132463194901e+00 -5.601293631972072973e-01 1.069437144818572216e+00 -5.131095977602940783e-01 -1.244659368091429297e+00 -6.015094883028283546e-01 4.179581300411277511e-01 2.972473912763816006e+00 -2.068188152233102484e-01 1.873315541471549439e+00 1.447963506209106077e+00 1.403850457692805420e-01 -6.752569685301458291e-01 1.797019338653607745e+00 9.976326618835095195e-01 -1.590206004948521601e+00 -2.418753787596947813e+00 -9.281777048271179220e-01 2.408693569232289722e+00 3.391802567219787345e+00 6.765782017184548414e-01 4.810970823383716177e-01 2.481476867819679910e+00 7.172334529180320883e-01 2.970408641049324228e+00 -2.111639859969598465e+00 -1.528670504747370873e-01 -2.824793162329515717e+00 -1.724321749702006024e+00 -8.338211860343096582e-01 5.104836167520247769e-02 -3.188794602390399024e-01 1.027202135014473994e+00 -3.972559188078409464e-01 -8.365512906137634319e-01 1.784658984657053526e+00 2.219544136097833853e+00 1.649875153202149614e+00 1.647711815761351950e+00 3.852440732623334529e-01 3.856385266682715862e-01 9.206199150590882452e-02 1.382535844234092703e+00 -1.257426749345572636e+00 -2.563342339370359713e-01 4.141154118149245056e-01 6.509706144499612934e-01 6.881163645496590764e-01 1.008265185953136855e+00 -3.086967229636671806e-01 2.014893115108566501e+00 3.163075125788616493e+00 1.994960788106874716e+00 3.282398905825993918e-01 -4.405784591771852998e-01 -2.829359521914394993e+00 -1.394841711637141879e+00 -1.007552666499216126e-01 6.880509128919153339e-01 -8.824319130439782777e-01 2.446976112488137844e-01 -2.513604242986277118e-02 -8.625774711867125744e-01 2.938290564946718586e+00 9.694331932296494925e-01 1.598317161000132103e+00 -4.373627915144882028e-01 1.028018709920085261e+00 7.784940732006984110e-01 2.843187312545699119e-01 -6.543979753217727957e-01 -2.773902429474259357e+00 -1.960830442818405128e+00 -1.332349213781756969e+00 2.853339857099346233e+00 1.562206552982642549e+00 1.663805475963259450e+00 2.903125703664859891e+00 2.109944585358345837e+00 3.292465189974064788e-01 2.658175292624995301e+00 -5.563942013882215015e-02 -1.413823198950720839e+00 -7.662689942850258173e-01 -7.686019935647268042e-01 -1.412255185029134497e+00 5.410093163559880347e-01 1.652915561538484401e-01 -4.874200273675009520e-01 1.835300940616051979e-01 -6.016606408870016631e-01 -2.850868728712575573e-01 -2.038621642381494681e+00 3.528524694978819043e-01 3.572558507288108309e-01 2.016593022966928217e-01 -1.141663379518580990e-01 -5.906040415831061985e-01 -2.020710368495510778e-01 -6.558628657780193327e-01 -1.413765767751161473e+00 1.073735926212197489e+00 1.904781870384467668e+00 2.605536416773885922e+00 1.011217394073790521e+00 5.792654514344806049e-01 6.659618628973735799e-01 1.346122429606317894e+00 9.028547550996788296e-01 -1.161707790262032219e-01 -5.157858393903287819e+00 -3.861769340067105372e+00 -1.711611997007261410e+00 5.747699454454688883e-01 1.939603218341223734e+00 -1.151426945629872023e+00 -2.455435558329507550e+00 6.412643773882247267e-01 -1.537798246735020635e+00 4.928113179472195515e-01 -7.054403946463237984e-01 -1.533577010492371384e+00 4.364151458694593422e-01 9.213704055806138937e-01 -7.421722428289684315e-01 -5.061519212680635205e-01 -1.095693787776883255e-01 9.395498709932825765e-02 3.011085437235202014e-02 -1.446941633661150972e-01 2.800522081771993577e+00 -9.561848447005546481e-01 4.730247980524917573e-01 2.916411351155755671e+00 -2.121330523395410506e+00 -1.034337227153387717e+00 7.043829226402437138e-01 3.801506255469387918e-01 -1.879794401313849006e+00 -1.425955112833482863e+00 4.292154213408085894e-01 4.592883737460604077e-01 4.830441071510906403e-01 4.146076405408189586e-02 1.230135877663266208e-01 2.965647644805561867e-01 -8.371626679920859404e-01 -6.243085856178008930e-01 -9.519575028110104364e-01 -2.095426581837759983e+00 -6.074785323764507750e-01 -1.285528203228161415e+00 -1.038512465451461031e+00 -9.019082990555656876e-01 8.604779571500383861e-01 -8.686813356842202349e-01 -1.451248386020874692e+00 3.671122385372430075e-01 -1.965868083705244254e-02 -7.407246135440025414e-01 -5.286692736578159080e-01 -1.405526871383669496e+00 -3.792768420440524313e-01 -9.124850142454324908e-01 -6.288371902346068243e-01 -3.188280346841118273e+00 -3.572851966088069542e+00 -4.641885481386329726e-01 -3.505522844836567731e-01 -7.303675135526195294e-01 -1.292263234169500841e+00 1.555256564832492749e+00 8.824844940318318232e-01 7.689099157929648598e-01 1.461749208516106346e+00 -2.214524170375036238e+00 -1.465016781675985369e+00 -2.197014015884011240e+00 -1.440818823639498092e+00 -1.739753615505422513e+00 -1.677909081713218065e+00 -4.524226073980523455e-01 -8.473415566316415681e-01 -6.741700551639727701e-01 -1.168693715708503555e+00 7.279116219831839318e-01 -3.154073182678089893e-01 -9.329106773931590546e-02 -8.759244826286292085e-01 -3.442240375958677490e+00 -1.651271406962760091e+00 -2.560105214726461131e+00 -3.797213368602262662e+00 -3.113130710157820502e+00 -2.149808997560676449e+00 -3.675228203542320937e+00 1.655343832348601607e+00 -1.198554791243707507e-01 9.464774535738381678e-01 -7.307499289893570893e-01 -5.774774860709067648e-01 -1.553086353692011978e-01 9.759472515253004854e-01 -1.294096038737118981e+00 -2.974825548937245934e+00 -2.419481965867900097e+00 -2.195865376290343285e+00 -1.942875546750581384e+00 -3.380304924998195126e+00 -2.080532362278833869e+00 -1.256691145587174541e+00 -3.479523546957802083e+00 -8.633189632230295896e-01 -2.783249755085030142e+00 -1.344591059887010775e+00 -3.764003685324329718e-01 -1.587406670867254066e+00 -1.928738137612665771e+00 -1.470481268190742430e+00 -2.768975303120995601e+00 -3.129587432859869622e+00 -2.021769358244823067e+00 -4.851800712490298984e-01 -2.396540752755565717e-01 1.300978993406358919e+00 -5.886668644671340100e-01 1.263506152152503281e+00 -2.871417678689010961e-02 6.077332849827956629e-01 -1.226134789014723836e+00 -2.057890471874692651e+00 -1.434482576663679732e+00 -1.113974067976389426e+00 -1.484573344085568403e+00 -2.475671189924994131e+00 -2.419610560338530725e+00 -7.586846386322966262e-01 -1.127362033252665041e+00 -1.978016935602408211e+00 -1.041482123996073872e+00 -1.969895003273596235e+00 -2.012182187294693669e+00 -1.561851854209763024e+00 -6.889445526934072639e-01 -2.616891118738331468e+00 -2.050447238718029475e+00 -1.300251517526000322e+00 -7.421787798203420827e-01 -1.968862194215181827e+00 -1.897405466004547847e+00 -5.663725141670306051e-01 -1.659379804723377205e+00 3.624949873367535602e-01 -9.328477627464893951e-01 -1.627914527109344034e+00 5.621619285718109094e-01 -5.872006972502298583e-02 1.040906817813531449e+00 -1.787069645409922636e+00 -7.332519829700543390e-01 -1.236997409287206695e+00 -8.190353304767110654e-01 -7.190128638647301784e-01 9.764491442686099587e-01 4.201967041667805103e-01 3.104036072666536694e-01 -2.822243471906499490e+00 -5.402724008238468656e-01 -1.650275769861659469e+00 -2.267676117142160663e+00 -1.547208233510737774e+00 -1.258859803981754455e+00 -1.184480090580595668e+00 -1.983729207216790580e-01 -1.259689135876877586e+00 -6.186195154601846768e-01 -5.030466163887485909e-01 -1.312236751991907147e+00 -1.750188391305440572e+00 1.465216777539159465e-01 -5.420699509201100108e-01 -1.607883724137295078e-01 -6.213795355059068548e-01 -1.548046275519765924e+00 2.615486355651983619e-01 6.209821223706794013e-01 -4.272459488336379785e-01 -2.399949057542920094e+00 -1.542297916907896527e-01 -8.868141760313514865e-01 1.692065611039967665e+00 -9.016686699487951318e-01 -1.334837679389149656e+00 2.090864338514889509e-01 -1.230045135954689339e+00 -1.329085615039103052e+00 -1.275950048306207618e+00 -1.256679059087028927e+00 -9.744957484266787429e-01 -2.044723675983034283e+00 -2.419390612844052768e+00 -8.556283899624028688e-01 -7.365153838045099821e-01 5.951179099780249393e-01 7.162778678277537114e-01 -8.364791634471541171e-02 -1.292562121405361475e-01 1.264014619532747741e+00 3.165566906589799556e-01 -2.535706338064191545e+00 -2.368492962959929393e+00 5.490504557140625241e-01 -5.382524366364072055e-01 -1.009212170065861391e+00 -9.080429136535806967e-01 -5.115518008935355798e-01 3.315283587695852519e-01 6.913485247637670694e-01 -7.634625187572605665e-01 -1.337745277503369357e+00 -6.831609648407842572e-01 -8.053737961608329332e-01 -1.002338250622106131e+00 -1.984669421716089621e+00 -7.264112189384892559e-01 -1.707270733639412175e+00 -2.633207088520821415e+00 -2.091636531782964603e+00 1.229263754808529896e+00 6.344685712793002308e-01 -1.354190044044885743e+00 5.957034093231521332e-01 1.368618488447896353e-01 4.279035754922174695e-01 -3.674075140365231640e-01 6.745468031853255608e-01 1.124484305804726691e+00 -1.283482333014938970e+00 3.447362776623886793e-01 -2.366405679142070118e-01 1.770765614507471275e-01 -1.137291288913745202e+00 8.687722643736469630e-01 4.867185322586075058e-01 1.700405951502877100e+00 -4.887733258214318477e-01 -9.259497026865984859e-01 -1.062673435939016642e-01 -9.317969167686230847e-01 -1.832772634226608632e+00 -3.679277219970375490e-01 -7.446544976861723120e-01 -9.097894070053583748e-01 -5.052252243831782952e-01 -7.867401006291070420e-01 9.985150072006236943e-01 -9.568736222918908796e-01 5.716163034301293688e-01 1.505080271429717786e+00 1.721371926017768006e+00 1.501397933263450835e+00 -5.620168689752592650e-01 -1.110209147502074917e-01 1.678788890687396895e+00 -2.599599715165998304e-01 -1.394804395571762390e+00 3.403046286277243704e-01 -3.026560965166464334e-01 -5.110817948684909240e-01 9.943993396318618894e-01 7.129867223533838949e-01 1.044031923883937951e+00 8.202164715640171133e-01 -4.605238467841671346e-02 -2.408260480309605267e-01 2.200608785596396555e-01 1.019930954515137378e+00 1.727317276350254005e+00 -5.214051115363806943e-01 -8.080750473616750140e-01 7.342655142103488020e-01 1.548842686788902967e-01 -9.308600406576340580e-01 1.458000874647109368e+00 -2.843731424802755647e-01 4.639148852018727398e-01 1.686748278751707852e+00 -2.754511726801734950e-01 -9.888784956186348341e-01 -3.086934766480661230e-01 2.251613248777261100e-01 -4.668608021419130560e-01 1.987285564376850111e+00 1.736214702529180476e-01 8.167479106969454117e-01 2.019899543872608616e-01 2.882661190842476517e-01 9.432027724256568657e-01 6.561514907946631725e-01 -1.937648154098584596e-01 -4.138609180826132716e-01 6.149795016147786841e-02 -4.102635488507160311e-01 -1.478063551659489994e+00 -2.660522036196978912e-01 -2.184382774578537578e+00 -1.015836553938105125e+00 -1.220244904202116176e+00 -2.735503531791079190e-01 5.848517270329862683e-01 -1.215732871019128636e+00 -1.465170728447967412e-02 -1.078258947431383286e+00 2.602808936195949094e-02 -5.576150592794089089e-01 -2.496495474289327277e+00 3.573567654453214670e-01 -3.673441184044041186e-01 -1.009530259719557455e+00 5.715285032740490267e-01 -1.106646414734575590e+00 8.850167909871607952e-01 3.535096635323800585e-01
